=== Run information ===

Scheme:       weka.classifiers.trees.REPTree -M 2 -V 0.001 -N 3 -S 1 -L -1 -I 0.0
Relation:     deg_dimred-weka.filters.unsupervised.attribute.Remove-R1
Instances:    247
Attributes:   57
              ADCY1
              AHI1
              ANKFN1
              ARHGAP23
              ARHGEF10L
              ATXN1
              BBS9
              C17orf107
              C7orf41
              CLASP1
              CLTCL1
              CSRNP3
              DFNA5
              DOPEY1
              DYNC1I2
              EIF2C4
              EPB41L4A
              FAM131B
              GNAI1
              GPR85
              HECW1
              HMGCLL1
              INPP1
              JAZF1
              JUP
              KCNK10
              LOC100131199
              LOC100133616
              LOC100509093
              LOC283140
              LRRC28
              MARCKS
              MLL5
              MTSS1
              NCAM1
              NXPH1
              ODZ3
              PAFAH1B1
              PGM2L1
              PLCL1
              PLXNC1
              PPP3CB
              PSD2
              SCN2A
              SCN3A
              SGSM1
              SOCS7
              SYNRG
              TIA1
              TOM1L2
              TRIM2
              TRIM36
              TRNAU1AP
              UBE2D4
              WSB1
              ZNF608
              STATUS
Test mode:    10-fold cross-validation

=== Classifier model (full training set) ===


REPTree
============

ZNF608 < -0.5
|   ADCY1 < 0.63 : 1:DECEASED (98/22) [44/12]
|   ADCY1 >= 0.63 : 0:LIVING (5/0) [3/0]
ZNF608 >= -0.5
|   C17orf107 < -0.14
|   |   TRNAU1AP < 0.17 : 1:DECEASED (26/11) [20/8]
|   |   TRNAU1AP >= 0.17
|   |   |   AHI1 < -0.84 : 1:DECEASED (3/1) [3/1]
|   |   |   AHI1 >= -0.84 : 0:LIVING (11/0) [4/1]
|   C17orf107 >= -0.14 : 0:LIVING (21/0) [9/0]

Size of the tree : 11

Time taken to build model: 0.03 seconds

=== Stratified cross-validation ===
=== Summary ===

Correctly Classified Instances         159               64.3725 %
Incorrectly Classified Instances        88               35.6275 %
Kappa statistic                          0.2548
Mean absolute error                      0.4165
Root mean squared error                  0.5004
Relative absolute error                 84.7943 %
Root relative squared error            100.9714 %
Total Number of Instances              247     

=== Detailed Accuracy By Class ===

                 TP Rate  FP Rate  Precision  Recall   F-Measure  MCC      ROC Area  PRC Area  Class
                 0.771    0.523    0.659      0.771    0.711      0.260    0.640     0.650     1:DECEASED
                 0.477    0.229    0.614      0.477    0.537      0.260    0.640     0.563     0:LIVING
Weighted Avg.    0.644    0.396    0.639      0.644    0.635      0.260    0.640     0.613     

=== Confusion Matrix ===

   a   b   <-- classified as
 108  32 |   a = 1:DECEASED
  56  51 |   b = 0:LIVING


